digraph Tree {
node [shape=box, style="filled, rounded", color="black", fontname="helvetica"] ;
edge [fontname="helvetica"] ;
0 [label="x1 <= 0.14\nsquared_error = 0.103\nsamples = 200\nvalue = 0.37", fillcolor="#f8dcc9"] ;
1 [label="x1 <= 0.058\nsquared_error = 0.024\nsamples = 29\nvalue = 0.8", fillcolor="#e99559"] ;
0 -> 1 [labeldistance=2.5, labelangle=45, headlabel="True"] ;
2 [label="squared_error = 0.007\nsamples = 15\nvalue = 0.922", fillcolor="#e58139"] ;
1 -> 2 ;
3 [label="squared_error = 0.009\nsamples = 14\nvalue = 0.669", fillcolor="#eeab7b"] ;
1 -> 3 ;
4 [label="x1 <= 0.795\nsquared_error = 0.08\nsamples = 171\nvalue = 0.297", fillcolor="#fae9dc"] ;
0 -> 4 [labeldistance=2.5, labelangle=-45, headlabel="False"] ;
5 [label="squared_error = 0.027\nsamples = 125\nvalue = 0.161", fillcolor="#ffffff"] ;
4 -> 5 ;
6 [label="squared_error = 0.035\nsamples = 46\nvalue = 0.666", fillcolor="#eeab7c"] ;
4 -> 6 ;
}